<?xml version="1.0"?>
<opencv_storage>
<cascade>
  <stageType>BOOST</stageType>
  <featureType>LBP</featureType>
  <height>10</height>
  <width>30</width>
  <stageParams>
    <boostType>GAB</boostType>
    <minHitRate>9.9500000476837158e-01</minHitRate>
    <maxFalseAlarm>5.0000000000000000e-01</maxFalseAlarm>
    <weightTrimRate>9.4999999999999996e-01</weightTrimRate>
    <maxDepth>1</maxDepth>
    <maxWeakCount>100</maxWeakCount></stageParams>
  <featureParams>
    <maxCatCount>256</maxCatCount>
    <featSize>1</featSize></featureParams>
  <stageNum>22</stageNum>
  <stages>
    <!-- stage 0 -->
    <_>
      <maxWeakCount>4</maxWeakCount>
      <stageThreshold>-6.2056511640548706e-01</stageThreshold>
      <weakClassifiers>
        <_>
          <internalNodes>
            0 -1 13 -738721793 -707292769 -788424705 2010323291
            -914121733 819986689 916187887 272039987</internalNodes>
          <leafValues>
            -7.9289025068283081e-01 6.9174975156784058e-01</leafValues></_>
        <_>
          <internalNodes>
            0 -1 33 1039864799 1073682999 536939103 2101411935 713103882
            1051934905 973106107 1064244031</internalNodes>
          <leafValues>
            -7.1519172191619873e-01 4.7486704587936401e-01</leafValues></_>
        <_>
          <internalNodes>
            0 -1 176 750403445 -1073989637 -36245025 -542499147
            -1423147524 -72388115 -1346876419 -1397092512</internalNodes>
          <leafValues>
            -6.5007239580154419e-01 4.7540771961212158e-01</leafValues></_>
        <_>
          <internalNodes>
            0 -1 75 -632039425 -716119885 -1434394149 1393677075
            -1585329985 -1733820215 -958365464 525696</internalNodes>
          <leafValues>
            -7.2149819135665894e-01 4.1210910677909851e-01</leafValues></_></weakClassifiers></_>
    <!-- stage 1 -->
    <_>
      <maxWeakCount>5</maxWeakCount>
      <stageThreshold>-9.3944829702377319e-01</stageThreshold>
      <weakClassifiers>
        <_>
          <internalNodes>
            0 -1 21 -170434561 1037898079 -1324027525 1570440923
            1015094271 680661763 972208319 356197915</internalNodes>
          <leafValues>
            -7.3505973815917969e-01 4.9599358439445496e-01</leafValues></_>
        <_>
          <internalNodes>
            0 -1 166 -61020707 -673384583 -561653025 -7186119 -88362499
            -2388581 -911566343 -1908930188</internalNodes>
          <leafValues>
            -5.9162199497222900e-01 4.6038943529129028e-01</leafValues></_>
        <_>
          <internalNodes>
            0 -1 164 485761021 -1208338969 -188254977 -1180874805
            -1395577973 -7879959 -1947321623 -1073864817</internalNodes>
          <leafValues>
            -5.3100270032882690e-01 4.6775674819946289e-01</leafValues></_>
        <_>
          <internalNodes>
            0 -1 39 630987095 -110001699 -1588511841 -30977133
            2080453753 967972223 1841330842 719595099</internalNodes>
          <leafValues>
            -5.3999143838882446e-01 4.5660728216171265e-01</leafValues></_>
        <_>
          <internalNodes>
            0 -1 218 723258845 210776659 -1982660199 1033512303
            -1277215761 -1179415047 -308765905 -1074124255</internalNodes>
          <leafValues>
            -5.3713053464889526e-01 4.5321476459503174e-01</leafValues></_></weakClassifiers></_>
    <!-- stage 2 -->
    <_>
      <maxWeakCount>6</maxWeakCount>
      <stageThreshold>-1.2359696626663208e+00</stageThreshold>
      <weakClassifiers>
        <_>
          <internalNodes>
            0 -1 8 -1 -1 -1149239297 -298032 -9101346 -67495117
            -346741254 2100625440</internalNodes>
          <leafValues>
            -5.3901219367980957e-01 5.9581547975540161e-01</leafValues></_>
        <_>
          <internalNodes>
            0 -1 152 -1256476193 861778073 -721348257 500510929
            -1764370979 -1466891878 -528422262 731621834</internalNodes>
          <leafValues>
            -5.7295531034469604e-01 4.7885778546333313e-01</leafValues></_>
        <_>
          <internalNodes>
            0 -1 148 -265109249 -543995888 -1852269353 -7264896
            -661775974 -1163753342 -1104507924 134221824</internalNodes>
          <leafValues>
            -5.1543486118316650e-01 4.7213080525398254e-01</leafValues></_>
        <_>
          <internalNodes>
            0 -1 97 338777080 804985040 -1652522859 1004353921 411052110
            -1181679230 134219918 151196939</internalNodes>
          <leafValues>
            -6.3122683763504028e-01 3.5484462976455688e-01</leafValues></_>
        <_>
          <internalNodes>
            0 -1 68 1003755637 929257869 -206973447 -539017003
            2021736428 -1096079147 -1079347781 786968331</internalNodes>
          <leafValues>
            -5.9456753730773926e-01 3.7566351890563965e-01</leafValues></_>
        <_>
          <internalNodes>
            0 -1 5 2146925461 -42795493 -21004293 -3276885 1037317625
            -163920 -19891221 -1724821232</internalNodes>
          <leafValues>
            -4.0481704473495483e-01 5.8396786451339722e-01</leafValues></_></weakClassifiers></_>
    <!-- stage 3 -->
    <_>
      <maxWeakCount>7</maxWeakCount>
      <stageThreshold>-1.0157091617584229e+00</stageThreshold>
      <weakClassifiers>
        <_>
          <internalNodes>
            0 -1 46 -1120051851 -819211 -4194305 -41609 -1074323464 -1
            1073708405 -8683723</internalNodes>
          <leafValues>
            -3.6103895306587219e-01 5.3877550363540649e-01</leafValues></_>
        <_>
          <internalNodes>
            0 -1 194 -1245972485 1651410 -742010531 477596823
            -2080329505 -1081536509 -1044841923 182188763</internalNodes>
          <leafValues>
            -5.3163331747055054e-01 4.0622851252555847e-01</leafValues></_>
        <_>
          <internalNodes>
            0 -1 155 -604057131 -1143161121 -770714657 -639663979
            1082303213 -13715413 -1178566403 -1364714448</internalNodes>
          <leafValues>
            -5.3005409240722656e-01 3.8454389572143555e-01</leafValues></_>
        <_>
          <internalNodes>
            0 -1 239 777797501 -1610448639 -1459513057 1034432604
            -352703809 -626485085 948513663 1038880513</internalNodes>
          <leafValues>
            -6.9626283645629883e-01 2.9759809374809265e-01</leafValues></_>
        <_>
          <internalNodes>
            0 -1 132 -968829736 -594538490 424697215 487931931
            -2142191068 -2003959680 -914302741 138890851</internalNodes>
          <leafValues>
            -5.0159263610839844e-01 3.3716523647308350e-01</leafValues></_>
        <_>
          <internalNodes>
            0 -1 43 -2052032715 -1082952867 1955192059 -1086434860
            -342636804 -24403727 -89569104 -1909695211</internalNodes>
          <leafValues>
            -5.3274351358413696e-01 3.0553260445594788e-01</leafValues></_>
        <_>
          <internalNodes>
            0 -1 16 -1034069513 1124144961 8507735 -1052737487
            1762199594 -1425866750 302076915 2053595763</internalNodes>
          <leafValues>
            -5.5311965942382812e-01 3.4679460525512695e-01</leafValues></_></weakClassifiers></_>
    <!-- stage 4 -->
    <_>
      <maxWeakCount>7</maxWeakCount>
      <stageThreshold>-9.4822573661804199e-01</stageThreshold>
      <weakClassifiers>
        <_>
          <internalNodes>
            0 -1 12 -543690753 -207765037 -93063175 -77429707 -412886369
            -1870479225 -523703815 269500432</internalNodes>
          <leafValues>
            -6.7937219142913818e-01 4.2407974600791931e-01</leafValues></_>
        <_>
          <internalNodes>
            0 -1 172 -1073791489 1073439743 -1450456925 -1218178941
            -1076544257 -1244690813 -1165020163 -1078247489</internalNodes>
          <leafValues>
            -4.9937170743942261e-01 4.7291010618209839e-01</leafValues></_>
        <_>
          <internalNodes>
            0 -1 28 1030767729 -578961331 -1700405313 -1073768137
            2057308721 -4458581 -1095751883 -1095234796</internalNodes>
          <leafValues>
            -5.6270450353622437e-01 3.7032288312911987e-01</leafValues></_>
        <_>
          <internalNodes>
            0 -1 228 -1929847555 1016651549 -258091081 -1898139403
            -355470105 -95858509 -1285137 -1397077778</internalNodes>
          <leafValues>
            -4.9810373783111572e-01 4.1090747714042664e-01</leafValues></_>
        <_>
          <internalNodes>
            0 -1 114 35806325 -1723973611 -909543841 -1076882987
            -1970660865 -353718098 -1400231494 -1371667451</internalNodes>
          <leafValues>
            -5.0097626447677612e-01 3.8366198539733887e-01</leafValues></_>
        <_>
          <internalNodes>
            0 -1 99 -56958979 -1177057779 -693249057 -287673931
            -1129909586 -1994410425 -1159989029 -1431694287</internalNodes>
          <leafValues>
            -5.1908397674560547e-01 3.5048213601112366e-01</leafValues></_>
        <_>
          <internalNodes>
            0 -1 217 -1459622913 993553783 -1073758209 799424381
            -71557123 -1560281091 -1359069449 -1462513921</internalNodes>
          <leafValues>
            -3.7584510445594788e-01 5.0186848640441895e-01</leafValues></_></weakClassifiers></_>
    <!-- stage 5 -->
    <_>
      <maxWeakCount>8</maxWeakCount>
      <stageThreshold>-7.4686127901077271e-01</stageThreshold>
      <weakClassifiers>
        <_>
          <internalNodes>
            0 -1 32 -570729257 2147481534 1073102335 771723135 936708174
            2038396467 1063223007 2138534759</internalNodes>
          <leafValues>
            -4.1362917423248291e-01 4.5665773749351501e-01</leafValues></_>
        <_>
          <internalNodes>
            0 -1 236 -1392705537 -1346568195 -16973825 -1623670915
            -1090781697 -1073741825 2130444287 -1895825409</internalNodes>
          <leafValues>
            -3.5137000679969788e-01 4.7697290778160095e-01</leafValues></_>
        <_>
          <internalNodes>
            0 -1 84 -44568113 -229260463 1074217055 880005523
            -1217822501 -1581163904 -37515330 284803738</internalNodes>
          <leafValues>
            -5.3163033723831177e-01 3.0956098437309265e-01</leafValues></_>
        <_>
          <internalNodes>
            0 -1 51 186209653 -607364715 -920534787 454280587 724261941
            -73727473 321519917 721165173</internalNodes>
          <leafValues>
            -6.2588167190551758e-01 2.7814224362373352e-01</leafValues></_>
        <_>
          <internalNodes>
            0 -1 223 -1393787439 137415157 -618406051 83100973
            -1610004042 -341312849 -367572237 -1365873418</internalNodes>
          <leafValues>
            -5.1491993665695190e-01 2.8978967666625977e-01</leafValues></_>
        <_>
          <internalNodes>
            0 -1 5 -707277421 -38272721 1094026199 -8632029 -1680604769
            -1966145371 -1472179805 494227477</internalNodes>
          <leafValues>
            -4.7543650865554810e-01 3.1444209814071655e-01</leafValues></_>
        <_>
          <internalNodes>
            0 -1 232 211431733 7614625 -241183753 -1078433517 1074686111
            -1206982413 -1096074641 967375924</internalNodes>
          <leafValues>
            -6.2993079423904419e-01 2.7425158023834229e-01</leafValues></_>
        <_>
          <internalNodes>
            0 -1 119 -1069235998 -650112880 94809 1972601291 -2122280775
            -1926102977 1140912362 218461347</internalNodes>
          <leafValues>
            -4.4937491416931152e-01 3.3106201887130737e-01</leafValues></_></weakClassifiers></_>
    <!-- stage 6 -->
    <_>
      <maxWeakCount>10</maxWeakCount>
      <stageThreshold>-9.1072571277618408e-01</stageThreshold>
      <weakClassifiers>
        <_>
          <internalNodes>
            0 -1 182 -1674838533 134290602 496768469 495814231 297970115
            14172613 1132724927 165648303</internalNodes>
          <leafValues>
            -4.7016274929046631e-01 4.2606517672538757e-01</leafValues></_>
        <_>
          <internalNodes>
            0 -1 20 -715135345 -791944889 75743501 1373891599
            -1021054297 2310149 -1014241073 1131106703</internalNodes>
          <leafValues>
            -5.4008698463439941e-01 3.2088366150856018e-01</leafValues></_>
        <_>
          <internalNodes>
            0 -1 3 -43517474 -738017197 -771604291 -829042223
            -1417015046 -1801305935 -669559613 1163346033</internalNodes>
          <leafValues>
            -4.2336580157279968e-01 3.0216237902641296e-01</leafValues></_>
        <_>
          <internalNodes>
            0 -1 74 196088816 -648669125 1018182929 154280333 672098018
            210452481 186129353 788138559</internalNodes>
          <leafValues>
            -5.9817957878112793e-01 2.3762500286102295e-01</leafValues></_>
        <_>
          <internalNodes>
            0 -1 101 -98415563 -1735780079 -1599355473 -341505588
            -1431086612 -1941411253 -1037508372 -1347745435</internalNodes>
          <leafValues>
            -3.9629352092742920e-01 3.2120558619499207e-01</leafValues></_>
        <_>
          <internalNodes>
            0 -1 89 -925178981 147335194 -1736141985 268878875
            1384237467 -2118106944 -1073493364 465924295</internalNodes>
          <leafValues>
            -4.2572695016860962e-01 2.9323473572731018e-01</leafValues></_>
        <_>
          <internalNodes>
            0 -1 207 -1542794188 -1074505438 -1069296809 -1096660711
            102371661 -1273686910 423641988 -1356707392</internalNodes>
          <leafValues>
            -4.8004797101020813e-01 2.6827430725097656e-01</leafValues></_>
        <_>
          <internalNodes>
            0 -1 59 -491625091 -1866473068 -1291083083 1543751715
            855786849 -620527550 -1149237195 -1883616427</internalNodes>
          <leafValues>
            -4.2325782775878906e-01 3.2378652691841125e-01</leafValues></_>
        <_>
          <internalNodes>
            0 -1 209 -1176541325 -604892800 -1995980407 1746846659
            144787829 -1741944551 1804237368 147382814</internalNodes>
          <leafValues>
            -4.6591505408287048e-01 2.7574658393859863e-01</leafValues></_>
        <_>
          <internalNodes>
            0 -1 55 -1405608591 -2146908831 1636405271 -1986956016
            -1290630879 -1453669246 1759646102 -1074129615</internalNodes>
          <leafValues>
            -4.8267871141433716e-01 2.8643444180488586e-01</leafValues></_></weakClassifiers></_>
    <!-- stage 7 -->
    <_>
      <maxWeakCount>10</maxWeakCount>
      <stageThreshold>-1.0670914649963379e+00</stageThreshold>
      <weakClassifiers>
        <_>
          <internalNodes>
            0 -1 36 632567157 -888890097 836233215 -269628707 998901761
            -907490659 718799160 753670249</internalNodes>
          <leafValues>
            -6.1403506994247437e-01 3.4613990783691406e-01</leafValues></_>
        <_>
          <internalNodes>
            0 -1 238 211301885 747934929 1973441975 781714369 1133470715
            -40902515 -1297147173 716982989</internalNodes>
          <leafValues>
            -6.7999118566513062e-01 2.1087558567523956e-01</leafValues></_>
        <_>
          <internalNodes>
            0 -1 109 655522555 -1989207438 1359003896 1069883609
            646211964 -1194718560 850213307 1027154259</internalNodes>
          <leafValues>
            -4.9131128191947937e-01 2.7919033169746399e-01</leafValues></_>
        <_>
          <internalNodes>
            0 -1 155 -428582315 -2063935587 -911085557 -536947767
            -785749651 -556428659 -1401519651 244318361</internalNodes>
          <leafValues>
            -5.6285589933395386e-01 2.2902978956699371e-01</leafValues></_>
        <_>
          <internalNodes>
            0 -1 196 -19234507 -539858671 1362085131 -1318756885
            -1573826129 -16016861 -1120062307 -1901458415</internalNodes>
          <leafValues>
            -3.9568430185317993e-01 3.3720046281814575e-01</leafValues></_>
        <_>
          <internalNodes>
            0 -1 17 -505441797 -385850594 -805202521 -94306748 859521
            -1467796990 407053755 2069571306</internalNodes>
          <leafValues>
            -4.7026625275611877e-01 2.8099107742309570e-01</leafValues></_>
        <_>
          <internalNodes>
            0 -1 43 1023104497 -8847369 -262147 -1346454211 -274436
            -163849 -37748803 -1342483659</internalNodes>
          <leafValues>
            -3.3523452281951904e-01 4.1992369294166565e-01</leafValues></_>
        <_>
          <internalNodes>
            0 -1 130 -989671280 1566638337 -1342142952 400363857
            -2103133008 -1666564085 202394367 464999939</internalNodes>
          <leafValues>
            -4.3424245715141296e-01 3.3683654665946960e-01</leafValues></_>
        <_>
          <internalNodes>
            0 -1 60 402488917 498569223 -1725197867 -2147397447
            -1664730811 1647530123 1011752396 754475329</internalNodes>
          <leafValues>
            -6.3446241617202759e-01 2.1257248520851135e-01</leafValues></_>
        <_>
          <internalNodes>
            0 -1 219 -1135184523 -1812196385 -1811593793 -1736010467
            -777500269 -1098649175 -74941367 783292691</internalNodes>
          <leafValues>
            -5.0036776065826416e-01 2.9133132100105286e-01</leafValues></_></weakClassifiers></_>
    <!-- stage 8 -->
    <_>
      <maxWeakCount>11</maxWeakCount>
      <stageThreshold>-8.4841293096542358e-01</stageThreshold>
      <weakClassifiers>
        <_>
          <internalNodes>
            0 -1 222 -2068130571 -1434701835 -8193 -1401655843 800732863
            -1080164355 2059292543 -1363522049</internalNodes>
          <leafValues>
            -3.2258063554763794e-01 4.1856232285499573e-01</leafValues></_>
        <_>
          <internalNodes>
            0 -1 49 -585605771 -1190437577 -979781185 -236336749
            994056048 -1471558725 1634740533 -17098463</internalNodes>
          <leafValues>
            -4.0339809656143188e-01 3.1542396545410156e-01</leafValues></_>
        <_>
          <internalNodes>
            0 -1 127 -94372589 -665970663 1444962381 -266645113
            -771578887 -1407647487 -26936322 13271178</internalNodes>
          <leafValues>
            -5.4323190450668335e-01 2.3372782766819000e-01</leafValues></_>
        <_>
          <internalNodes>
            0 -1 164 -1074102275 -137289391 -1052714667 -1303276
            -1706599427 -1501411647 -1706267154 -1410709255</internalNodes>
          <leafValues>
            -3.6312323808670044e-01 3.5942569375038147e-01</leafValues></_>
        <_>
          <internalNodes>
            0 -1 0 225729841 -1212639839 -313407075 -2020425645
            -1030620699 -79722254 -911721099 679041073</internalNodes>
          <leafValues>
            -5.3690403699874878e-01 2.2155278921127319e-01</leafValues></_>
        <_>
          <internalNodes>
            0 -1 199 -1898291808 -116375231 -1186769645 1058370361
            -2004813607 -1684284990 -306566701 -1347026457</internalNodes>
          <leafValues>
            -4.1594678163528442e-01 3.0709904432296753e-01</leafValues></_>
        <_>
          <internalNodes>
            0 -1 236 -847577089 -1342423108 -1 1060994943 -17109634
            -16385 -1090846723 -1879313411</internalNodes>
          <leafValues>
            -2.8290501236915588e-01 4.7375023365020752e-01</leafValues></_>
        <_>
          <internalNodes>
            0 -1 52 -1009495305 1562514898 1297105871 -29015727
            571028925 -22519720 126299355 2085251805</internalNodes>
          <leafValues>
            -3.5600945353507996e-01 3.7779748439788818e-01</leafValues></_>
        <_>
          <internalNodes>
            0 -1 233 200560597 -770146288 -971766281 -890341385
            -1308601643 -1953963893 -1883611571 216006696</internalNodes>
          <leafValues>
            -6.5634930133819580e-01 2.3403917253017426e-01</leafValues></_>
        <_>
          <internalNodes>
            0 -1 205 -1061135244 -1189691383 -1862149817 -646033171
            -939214807 -83193849 -1375712788 -1343066633</internalNodes>
          <leafValues>
            -3.6811730265617371e-01 3.7206640839576721e-01</leafValues></_>
        <_>
          <internalNodes>
            0 -1 62 -1072393776 -787349454 -855358989 -543931903
            -528301900 -396361440 2013289861 796726779</internalNodes>
          <leafValues>
            -4.0471428632736206e-01 3.3408951759338379e-01</leafValues></_></weakClassifiers></_>
    <!-- stage 9 -->
    <_>
      <maxWeakCount>12</maxWeakCount>
      <stageThreshold>-1.1646711826324463e+00</stageThreshold>
      <weakClassifiers>
        <_>
          <internalNodes>
            0 -1 9 -14961695 -774384291 -2142830463 -1069235 621384320
            -2142961148 -469614128 1931608128</internalNodes>
          <leafValues>
            -5.5650931596755981e-01 3.1738665699958801e-01</leafValues></_>
        <_>
          <internalNodes>
            0 -1 163 -1162190859 -641314400 -1018103297 -1155583995
            -1173651715 -660421625 -1509921849 -1450755828</internalNodes>
          <leafValues>
            -3.9432078599929810e-01 3.3223617076873779e-01</leafValues></_>
        <_>
          <internalNodes>
            0 -1 149 -497817890 -1154240225 805333091 -75143037
            1107544605 -1473214503 -125580403 8417903</internalNodes>
          <leafValues>
            -3.7728050351142883e-01 3.3701881766319275e-01</leafValues></_>
        <_>
          <internalNodes>
            0 -1 195 607076349 299114891 -1610407779 1067783888
            -527696961 -1148808569 -1995455549 1004255507</internalNodes>
          <leafValues>
            -4.2968589067459106e-01 2.9347565770149231e-01</leafValues></_>
        <_>
          <internalNodes>
            0 -1 106 -6136524 -1135210171 1497569495 -1244458940
            -1128265991 -1259789429 178309513 -1431632388</internalNodes>
          <leafValues>
            -3.9796531200408936e-01 2.7027362585067749e-01</leafValues></_>
        <_>
          <internalNodes>
            0 -1 95 -797380102 -495595369 204748799 -1087161805
            -797654434 -1742317597 308386041 -1686826221</internalNodes>
          <leafValues>
            -3.2646146416664124e-01 3.5485643148422241e-01</leafValues></_>
        <_>
          <internalNodes>
            0 -1 19 -776744995 -234813037 -1878764370 -653728218
            357344675 589365785 336448401 1965637871</internalNodes>
          <leafValues>
            -4.8739087581634521e-01 2.5418081879615784e-01</leafValues></_>
        <_>
          <internalNodes>
            0 -1 65 -1861062572 1595315496 551947485 386256754
            -646384862 -2105343567 1879933119 -1460197829</internalNodes>
          <leafValues>
            -3.4510803222656250e-01 3.7290632724761963e-01</leafValues></_>
        <_>
          <internalNodes>
            0 -1 41 822902713 822629215 -2147480164 -284995261
            -1827767925 815865911 847346027 1025193987</internalNodes>
          <leafValues>
            -4.1626992821693420e-01 2.9184404015541077e-01</leafValues></_>
        <_>
          <internalNodes>
            0 -1 159 -425005648 1024481297 -99396159 -138932587
            -1451228903 -830258999 604177114 -2110109499</internalNodes>
          <leafValues>
            -3.8714256882667542e-01 3.4577751159667969e-01</leafValues></_>
        <_>
          <internalNodes>
            0 -1 116 -266088296 1605492150 1952193777 1974473508
            -1955560242 -621534018 613545195 1002386555</internalNodes>
          <leafValues>
            -3.3494484424591064e-01 3.6713409423828125e-01</leafValues></_>
        <_>
          <internalNodes>
            0 -1 229 -1399950987 671261573 -502247329 773605449
            -561983079 -2004635357 206193925 -1898052941</internalNodes>
          <leafValues>
            -4.4955313205718994e-01 2.6663976907730103e-01</leafValues></_></weakClassifiers></_>
    <!-- stage 10 -->
    <_>
      <maxWeakCount>14</maxWeakCount>
      <stageThreshold>-8.9428991079330444e-01</stageThreshold>
      <weakClassifiers>
        <_>
          <internalNodes>
            0 -1 94 715470455 212292070 291897621 299252107 616893167
            680334138 394723470 32223053</internalNodes>
          <leafValues>
            -6.5467625856399536e-01 2.9347825050354004e-01</leafValues></_>
        <_>
          <internalNodes>
            0 -1 4 1770516727 -628374733 -1341819629 -276331822
            -1541305425 -285371865 -970778177 1997869073</internalNodes>
          <leafValues>
            -3.2434117794036865e-01 3.4116277098655701e-01</leafValues></_>
        <_>
          <internalNodes>
            0 -1 29 -973242531 -272646274 -1073741889 -16810113
            -1085325380 2147418111 805076733 -268603463</internalNodes>
          <leafValues>
            -2.8834459185600281e-01 3.7333780527114868e-01</leafValues></_>
        <_>
          <internalNodes>
            0 -1 213 -1503518883 17076447 -1857568421 970734077
            -709647207 155882057 34079313 686065941</internalNodes>
          <leafValues>
            -4.9905332922935486e-01 1.9583217799663544e-01</leafValues></_>
        <_>
          <internalNodes>
            0 -1 24 -109088261 -645992466 1706553315 -578978184
            1902425361 1180014391 121104119 -142773313</internalNodes>
          <leafValues>
            -3.1225055456161499e-01 3.3152523636817932e-01</leafValues></_>
        <_>
          <internalNodes>
            0 -1 112 -1811248624 -1875473979 1347536215 -811853810
            176892044 -1969317233 973468155 -1884665507</internalNodes>
          <leafValues>
            -3.8461548089981079e-01 2.8637143969535828e-01</leafValues></_>
        <_>
          <internalNodes>
            0 -1 177 -262404361 -1802235627 1426480479 -107433495
            1344999613 -1867451642 -896689783 10537100</internalNodes>
          <leafValues>
            -4.1604489088058472e-01 2.6756608486175537e-01</leafValues></_>
        <_>
          <internalNodes>
            0 -1 83 1064533498 566513794 -1790233726 2091910144
            338258527 -37093344 -1987294470 193079051</internalNodes>
          <leafValues>
            -4.9785694479942322e-01 2.0895314216613770e-01</leafValues></_>
        <_>
          <internalNodes>
            0 -1 178 -1743520228 -2012288895 -1005251322 950643335
            -1538788897 134680849 -745390052 284340185</internalNodes>
          <leafValues>
            -5.9836423397064209e-01 1.7020267248153687e-01</leafValues></_>
        <_>
          <internalNodes>
            0 -1 142 -1849517488 -1811414256 1073843539 158533633
            1083102610 -1744299765 -883908114 222659078</internalNodes>
          <leafValues>
            -4.7011125087738037e-01 2.2719566524028778e-01</leafValues></_>
        <_>
          <internalNodes>
            0 -1 175 -1139646603 -750626815 -1056128463 -1321074303
            -1975274811 -1534885879 -1445451607 -1456511401</internalNodes>
          <leafValues>
            -3.5613933205604553e-01 3.2401308417320251e-01</leafValues></_>
        <_>
          <internalNodes>
            0 -1 78 -605984738 -725318366 1732538681 1600732868
            -1522236291 -1930553558 88185551 -839406678</internalNodes>
          <leafValues>
            -2.9461735486984253e-01 3.8278365135192871e-01</leafValues></_>
        <_>
          <internalNodes>
            0 -1 107 -600376743 -675889741 798084503 -41002325
            -335435064 -1127079692 427801215 -1187005542</internalNodes>
          <leafValues>
            -1.9861392676830292e-01 5.9783333539962769e-01</leafValues></_>
        <_>
          <internalNodes>
            0 -1 42 567952558 868987405 -1837037058 1462312143 273548491
            947932162 221844622 734240876</internalNodes>
          <leafValues>
            -4.7701215744018555e-01 2.4360568821430206e-01</leafValues></_></weakClassifiers></_>
    <!-- stage 11 -->
    <_>
      <maxWeakCount>13</maxWeakCount>
      <stageThreshold>-9.7498226165771484e-01</stageThreshold>
      <weakClassifiers>
        <_>
          <internalNodes>
            0 -1 225 244335477 -1744826022 -649781991 1746551627
            -1247256492 -106280317 -7578828 146294884</internalNodes>
          <leafValues>
            -5.8193981647491455e-01 2.9221227765083313e-01</leafValues></_>
        <_>
          <internalNodes>
            0 -1 1 -12714635 -12582921 -524419 -137 -1115783747 -1
            -8552595 -72124873</internalNodes>
          <leafValues>
            -2.6247259974479675e-01 4.2188921570777893e-01</leafValues></_>
        <_>
          <internalNodes>
            0 -1 161 -1295574025 1574208 -888605549 1006698885 25428418
            -2138894046 -1591727414 -1188335539</internalNodes>
          <leafValues>
            -3.8651338219642639e-01 2.9745936393737793e-01</leafValues></_>
        <_>
          <internalNodes>
            0 -1 6 -917638752 -108572285 3754325 -40955578 -1308415557
            -1204207564 -1916276033 1346642181</internalNodes>
          <leafValues>
            -4.8351603746414185e-01 2.1002393960952759e-01</leafValues></_>
        <_>
          <internalNodes>
            0 -1 180 -64566960 -1313956555 -79692289 -585622488
            -1662844999 -272916515 -1942484808 -1141674637</internalNodes>
          <leafValues>
            -3.0660405755043030e-01 3.6951547861099243e-01</leafValues></_>
        <_>
          <internalNodes>
            0 -1 124 -863964936 -855608880 134386627 26150592 1074864752
            -1065285997 -498941074 1069689514</internalNodes>
          <leafValues>
            -3.9517551660537720e-01 2.6259884238243103e-01</leafValues></_>
        <_>
          <internalNodes>
            0 -1 98 -1534969547 1417699606 -519678501 453939341
            962566329 952889994 1086553083 -1440199367</internalNodes>
          <leafValues>
            -4.1810005903244019e-01 2.5528800487518311e-01</leafValues></_>
        <_>
          <internalNodes>
            0 -1 220 1287017949 550769147 -1785642977 9488729 -242795751
            -2021482931 -1988934772 -1430631297</internalNodes>
          <leafValues>
            -3.7159797549247742e-01 2.8965950012207031e-01</leafValues></_>
        <_>
          <internalNodes>
            0 -1 200 -1230873456 421009536 -1044391459 -714541551
            1628508607 -1706811253 -2099100659 -1347283503</internalNodes>
          <leafValues>
            -4.4562089443206787e-01 2.3640090227127075e-01</leafValues></_>
        <_>
          <internalNodes>
            0 -1 11 -718678069 1345225910 -1073658174 -209158074
            -1069487740 1115687425 1610862987 1917124736</internalNodes>
          <leafValues>
            -5.7838952541351318e-01 2.1569840610027313e-01</leafValues></_>
        <_>
          <internalNodes>
            0 -1 70 -943610291 -204045536 -1478569123 330214963
            -593170807 -1231989001 -528709426 -890937397</internalNodes>
          <leafValues>
            -2.4805462360382080e-01 4.7028666734695435e-01</leafValues></_>
        <_>
          <internalNodes>
            0 -1 31 -790675497 285475988 1342335315 8432193 1279664205
            161563404 2052005359 1936620338</internalNodes>
          <leafValues>
            -4.3056902289390564e-01 2.4626146256923676e-01</leafValues></_>
        <_>
          <internalNodes>
            0 -1 120 -1364039307 -599753659 -754338627 -54709647
            687354860 -636272117 -1566031204 -1413583367</internalNodes>
          <leafValues>
            -3.5956227779388428e-01 3.0796027183532715e-01</leafValues></_></weakClassifiers></_>
    <!-- stage 12 -->
    <_>
      <maxWeakCount>15</maxWeakCount>
      <stageThreshold>-8.0453079938888550e-01</stageThreshold>
      <weakClassifiers>
        <_>
          <internalNodes>
            0 -1 40 620508503 2063251455 -1358992153 -50757649 821372924
            1006517757 2138527465 2048332663</internalNodes>
          <leafValues>
            -3.0086955428123474e-01 3.6000001430511475e-01</leafValues></_>
        <_>
          <internalNodes>
            0 -1 234 -285415425 -553861633 -65537 -1946222659
            -1342251521 -16385 -65541 -1896088081</internalNodes>
          <leafValues>
            -2.3323260247707367e-01 4.1350778937339783e-01</leafValues></_>
        <_>
          <internalNodes>
            0 -1 61 1419185762 1435652623 205528756 -693259707
            -1300027249 -1743547422 -75245141 6584021</internalNodes>
          <leafValues>
            -4.8569381237030029e-01 1.9698631763458252e-01</leafValues></_>
        <_>
          <internalNodes>
            0 -1 189 -1082622635 1569247525 -1958669755 488219986
            1451901873 -1719648120 88160705 1062471875</internalNodes>
          <leafValues>
            -3.6923587322235107e-01 2.7319788932800293e-01</leafValues></_>
        <_>
          <internalNodes>
            0 -1 87 809164881 1451796992 -2055188251 276127753
            -519929092 -74903183 1896114499 2033953962</internalNodes>
          <leafValues>
            -3.4320029616355896e-01 2.7737018465995789e-01</leafValues></_>
        <_>
          <internalNodes>
            0 -1 56 848327479 1091194929 -804598367 428832965
            -1601425035 -360472437 -124092891 -1440057995</internalNodes>
          <leafValues>
            -4.4421672821044922e-01 2.2425343096256256e-01</leafValues></_>
        <_>
          <internalNodes>
            0 -1 191 1581046354 -1793765984 -1592741291 -1182572279
            947339973 1563034731 -1010607740 4685355</internalNodes>
          <leafValues>
            -3.2641759514808655e-01 3.0010637640953064e-01</leafValues></_>
        <_>
          <internalNodes>
            0 -1 144 -1064176666 -2071424127 939905232 277158535
            335622274 905560 1812064396 186409123</internalNodes>
          <leafValues>
            -5.5640542507171631e-01 1.7407156527042389e-01</leafValues></_>
        <_>
          <internalNodes>
            0 -1 125 -1219266853 -916962726 1410333661 982876481
            -2129349771 -1130121006 1762400647 -1610129141</internalNodes>
          <leafValues>
            -3.1044673919677734e-01 3.2165372371673584e-01</leafValues></_>
        <_>
          <internalNodes>
            0 -1 110 -1979655715 -1819131426 -2126257923 -106163621
            -436052523 -122616941 -1859855477 -1364589071</internalNodes>
          <leafValues>
            -3.3479508757591248e-01 2.9836639761924744e-01</leafValues></_>
        <_>
          <internalNodes>
            0 -1 140 2019749968 -751682159 2119298813 1698548161
            -165893462 -436785795 2073602303 -1950416181</internalNodes>
          <leafValues>
            -2.3430001735687256e-01 4.4502550363540649e-01</leafValues></_>
        <_>
          <internalNodes>
            0 -1 26 -340263589 2104872957 1071759342 2121711538
            1064658233 -273072705 -1615167689 -16943237</internalNodes>
          <leafValues>
            -2.6016083359718323e-01 4.2561945319175720e-01</leafValues></_>
        <_>
          <internalNodes>
            0 -1 2 -1500432555 77746393 1700073435 -996485805
            -1071527699 -922730052 -353912427 1918178320</internalNodes>
          <leafValues>
            -4.3313044309616089e-01 2.4103561043739319e-01</leafValues></_>
        <_>
          <internalNodes>
            0 -1 158 -556206922 1908404888 -1844770547 539328918
            -1006394956 -1466416622 -355418106 187208334</internalNodes>
          <leafValues>
            -4.1156360507011414e-01 2.6888847351074219e-01</leafValues></_>
        <_>
          <internalNodes>
            0 -1 118 1395579219 -728578038 -750592929 501547972
            -725241629 -1733777200 1619016844 961636003</internalNodes>
          <leafValues>
            -3.2624301314353943e-01 3.3587661385536194e-01</leafValues></_></weakClassifiers></_>
    <!-- stage 13 -->
    <_>
      <maxWeakCount>15</maxWeakCount>
      <stageThreshold>-1.0077106952667236e+00</stageThreshold>
      <weakClassifiers>
        <_>
          <internalNodes>
            0 -1 176 -1644724233 -1073906315 -268566531 -1611825227
            -1350631940 -32769 -1078448131 -1442941070</internalNodes>
          <leafValues>
            -1.8664281070232391e-01 4.4596818089485168e-01</leafValues></_>
        <_>
          <internalNodes>
            0 -1 215 -390275631 1031140115 -788207853 -1092832439
            -166477576 -103681903 -503218630 707447667</internalNodes>
          <leafValues>
            -3.3740633726119995e-01 2.7559217810630798e-01</leafValues></_>
        <_>
          <internalNodes>
            0 -1 184 -1517027779 826017207 -586602171 760466503
            205523594 176886411 -658059136 1056130631</internalNodes>
          <leafValues>
            -3.4498807787895203e-01 2.6549732685089111e-01</leafValues></_>
        <_>
          <internalNodes>
            0 -1 196 416697717 -1650454511 -534329065 2140357081
            -145469419 -88439909 -1430228610 -1908777935</internalNodes>
          <leafValues>
            -3.7122803926467896e-01 2.5440037250518799e-01</leafValues></_>
        <_>
          <internalNodes>
            0 -1 145 -1029973766 -779611836 1430913233 1594721541
            -2009479511 -1282783553 703617531 119517231</internalNodes>
          <leafValues>
            -2.9913309216499329e-01 3.0289316177368164e-01</leafValues></_>
        <_>
          <internalNodes>
            0 -1 48 705724405 -1877632932 -989443889 -563330263
            1099448436 -116682055 1645240865 -1393871776</internalNodes>
          <leafValues>
            -4.6186980605125427e-01 2.0934841036796570e-01</leafValues></_>
        <_>
          <internalNodes>
            0 -1 171 -1389199332 -125298688 -1656596133 -358209524
            -2105376736 -494730582 -1475172144 -1765121715</internalNodes>
          <leafValues>
            -3.3060809969902039e-01 2.9425472021102905e-01</leafValues></_>
        <_>
          <internalNodes>
            0 -1 218 214963545 645447710 -1306502479 1037173581
            -1471620967 -1384109495 1363531891 1842146817</internalNodes>
          <leafValues>
            -5.4465651512145996e-01 1.6023407876491547e-01</leafValues></_>
        <_>
          <internalNodes>
            0 -1 84 -742285025 -1274124734 -263880685 2092515331
            -788201975 -1609792639 -1639005884 11093272</internalNodes>
          <leafValues>
            -6.2043809890747070e-01 1.5335936844348907e-01</leafValues></_>
        <_>
          <internalNodes>
            0 -1 113 -301277040 1355777040 268569053 1082728759
            1217233556 -1720710667 1502610211 189662218</internalNodes>
          <leafValues>
            -4.3566226959228516e-01 2.2328306734561920e-01</leafValues></_>
        <_>
          <internalNodes>
            0 -1 54 553004853 -1405018110 -1744711213 -2070361973
            -624294723 -1704322650 939880529 750020372</internalNodes>
          <leafValues>
            -5.6789779663085938e-01 1.8691299855709076e-01</leafValues></_>
        <_>
          <internalNodes>
            0 -1 185 -925973350 -1275781676 123640671 1401400615
            -327960163 -1181161249 -1153417378 -81065269</internalNodes>
          <leafValues>
            -2.2110798954963684e-01 4.8642557859420776e-01</leafValues></_>
        <_>
          <internalNodes>
            0 -1 118 1634204370 1502790624 -1849588531 2009322755
            337957052 32185299 201660894 1493560075</internalNodes>
          <leafValues>
            -3.7362021207809448e-01 2.8594151139259338e-01</leafValues></_>
        <_>
          <internalNodes>
            0 -1 199 -1355671503 -1253801646 -1073524465 663767191
            -527273803 -1416593231 1319860521 -1366141581</internalNodes>
          <leafValues>
            -3.7270659208297729e-01 2.8170502185821533e-01</leafValues></_>
        <_>
          <internalNodes>
            0 -1 136 -133450350 -597160855 1355036245 -1088572982
            -1676685088 -390520414 1484318447 -641228751</internalNodes>
          <leafValues>
            -2.7600213885307312e-01 3.8509592413902283e-01</leafValues></_></weakClassifiers></_>
    <!-- stage 14 -->
    <_>
      <maxWeakCount>15</maxWeakCount>
      <stageThreshold>-7.5586158037185669e-01</stageThreshold>
      <weakClassifiers>
        <_>
          <internalNodes>
            0 -1 12 1577966093 -1340635321 440401931 -643026750
            -255357805 7803137 -362745447 269709348</internalNodes>
          <leafValues>
            -5.4690265655517578e-01 2.7563884854316711e-01</leafValues></_>
        <_>
          <internalNodes>
            0 -1 202 -1628012675 -1076812936 -696198917 -1157102737
            -1173550938 -611073907 -1652423797 240786287</internalNodes>
          <leafValues>
            -3.8307967782020569e-01 2.4386526644229889e-01</leafValues></_>
        <_>
          <internalNodes>
            0 -1 197 -828220396 1534751933 2147483647 -1886167243
            1052663029 2143289343 -406896645 -1346742241</internalNodes>
          <leafValues>
            -2.7754217386245728e-01 3.4231883287429810e-01</leafValues></_>
        <_>
          <internalNodes>
            0 -1 14 1028684085 -1668808507 1342291987 -1781538560
            -788450827 -229990387 -1417123535 -1355010304</internalNodes>
          <leafValues>
            -4.6205973625183105e-01 1.9274929165840149e-01</leafValues></_>
        <_>
          <internalNodes>
            0 -1 93 -1269571365 10906055 1208062345 1354797469
            -1588784185 13969547 -1072785278 283114442</internalNodes>
          <leafValues>
            -5.3538459539413452e-01 1.6466861963272095e-01</leafValues></_>
        <_>
          <internalNodes>
            0 -1 231 207126493 203167397 -1040105005 849089216
            1084908201 -1261901685 579041417 720949701</internalNodes>
          <leafValues>
            -5.6123775243759155e-01 1.6614781320095062e-01</leafValues></_>
        <_>
          <internalNodes>
            0 -1 201 -1972444879 466270978 -796659142 -1693973164
            -1426013952 -226361151 -1501015448 -1388611311</internalNodes>
          <leafValues>
            -3.3525153994560242e-01 2.7616477012634277e-01</leafValues></_>
        <_>
          <internalNodes>
            0 -1 45 -891846237 1482055967 -2128542142 -817256897
            -865143556 145712166 -995931985 1417111052</internalNodes>
          <leafValues>
            -3.3691331744194031e-01 2.9074835777282715e-01</leafValues></_>
        <_>
          <internalNodes>
            0 -1 235 105929853 -291887696 -1861646256 -1567597974
            36073561 -88903407 -587120056 782786681</internalNodes>
          <leafValues>
            -5.7320123910903931e-01 1.7464368045330048e-01</leafValues></_>
        <_>
          <internalNodes>
            0 -1 121 -799292232 1902460935 -1661593159 -1694034702
            -1852645192 -904716242 53865631 -378587674</internalNodes>
          <leafValues>
            -2.8235417604446411e-01 3.6856678128242493e-01</leafValues></_>
        <_>
          <internalNodes>
            0 -1 35 562379061 359301965 -939341057 -754335543
            -1231945388 -1060939711 -829605340 719355649</internalNodes>
          <leafValues>
            -5.7747644186019897e-01 1.8231126666069031e-01</leafValues></_>
        <_>
          <internalNodes>
            0 -1 138 -566822181 -671990838 -1926604973 -403059525
            1285008586 -1202322315 1847449262 -319820994</internalNodes>
          <leafValues>
            -2.0991581678390503e-01 5.1930445432662964e-01</leafValues></_>
        <_>
          <internalNodes>
            0 -1 184 -1531461885 819724506 -216722109 1052934211
            1028010228 746609280 1287680261 214165334</internalNodes>
          <leafValues>
            -4.4725826382637024e-01 2.2174383699893951e-01</leafValues></_>
        <_>
          <internalNodes>
            0 -1 179 -195581312 988961928 921549725 -714618310
            -780497760 -1916116883 -979399506 -387455486</internalNodes>
          <leafValues>
            -2.5599834322929382e-01 4.2082631587982178e-01</leafValues></_>
        <_>
          <internalNodes>
            0 -1 23 -1005611274 -33495978 -2109191549 1539632622
            1095852100 -531607547 1174881008 1769309930</internalNodes>
          <leafValues>
            -4.6694663166999817e-01 2.2175653278827667e-01</leafValues></_></weakClassifiers></_>
    <!-- stage 15 -->
    <_>
      <maxWeakCount>16</maxWeakCount>
      <stageThreshold>-9.6304363012313843e-01</stageThreshold>
      <weakClassifiers>
        <_>
          <internalNodes>
            0 -1 128 421477303 666258 1078084357 948466243 -1786133031
            67667072 1453306122 16626616</internalNodes>
          <leafValues>
            -5.9030836820602417e-01 2.5213393568992615e-01</leafValues></_>
        <_>
          <internalNodes>
            0 -1 160 -853877276 -172089864 -74245 997791100 -1665458440
            -75612801 -2014015623 -1076138629</internalNodes>
          <leafValues>
            -2.5216105580329895e-01 3.3080187439918518e-01</leafValues></_>
        <_>
          <internalNodes>
            0 -1 30 1381962868 23531859 134844450 134417280 1286341757
            137560070 1736461133 2060477040</internalNodes>
          <leafValues>
            -5.5485081672668457e-01 1.8201324343681335e-01</leafValues></_>
        <_>
          <internalNodes>
            0 -1 71 -438984445 -146627664 1217624316 1408860273
            742784204 -722064970 408815870 -1727265953</internalNodes>
          <leafValues>
            -2.6134064793586731e-01 3.4027808904647827e-01</leafValues></_>
        <_>
          <internalNodes>
            0 -1 82 -1013821360 1817712052 -814462533 1463803933
            -932053148 -798217997 -326051670 -1653738918</internalNodes>
          <leafValues>
            -2.8208348155021667e-01 3.0513930320739746e-01</leafValues></_>
        <_>
          <internalNodes>
            0 -1 156 -735384512 -1505099403 -989736375 -1744825775
            -1272680298 -1683504573 -220950332 -1120334543</internalNodes>
          <leafValues>
            -3.4119957685470581e-01 2.4635489284992218e-01</leafValues></_>
        <_>
          <internalNodes>
            0 -1 203 -1901405131 -30212229 -1098907649 1572719739
            -1342284034 -557899779 -1628889345 -1141154789</internalNodes>
          <leafValues>
            -2.4288623034954071e-01 3.7094429135322571e-01</leafValues></_>
        <_>
          <internalNodes>
            0 -1 86 1455644927 1075616176 1644365063 -1872862445
            -410257761 134262979 -382358968 159142152</internalNodes>
          <leafValues>
            -4.8089754581451416e-01 1.8319818377494812e-01</leafValues></_>
        <_>
          <internalNodes>
            0 -1 165 965505573 689402865 83904707 -1660868534 952565839
            -119348607 -1878902586 1025537027</internalNodes>
          <leafValues>
            -4.4935935735702515e-01 2.1158595383167267e-01</leafValues></_>
        <_>
          <internalNodes>
            0 -1 212 -1060269801 2030077983 -980652007 943198983
            -527873956 -727064573 2116121404 14688847</internalNodes>
          <leafValues>
            -3.7813201546669006e-01 2.4752390384674072e-01</leafValues></_>
        <_>
          <internalNodes>
            0 -1 104 -702021956 -114041195 1056234018 -1452456589
            -226873096 -1900011384 282730239 -104359221</internalNodes>
          <leafValues>
            -2.4453227221965790e-01 3.9959350228309631e-01</leafValues></_>
        <_>
          <internalNodes>
            0 -1 77 -42643720 910953717 2146988006 -1697563027
            1568247038 -8437962 613783218 -846553363</internalNodes>
          <leafValues>
            -2.6804199814796448e-01 3.4262982010841370e-01</leafValues></_>
        <_>
          <internalNodes>
            0 -1 7 -532179065 -1039935347 -1071330151 -217978204
            671111938 1722418 1079256967 1996972614</internalNodes>
          <leafValues>
            -5.1663517951965332e-01 1.8247237801551819e-01</leafValues></_>
        <_>
          <internalNodes>
            0 -1 135 -1807709873 -1043811831 268197566 -570925197
            -1099834374 1853204310 1715064571 -546199560</internalNodes>
          <leafValues>
            -2.4828767776489258e-01 4.1418585181236267e-01</leafValues></_>
        <_>
          <internalNodes>
            0 -1 96 -2000282896 -1840246219 285411123 1057055010
            -1123442288 -92012029 -2046590056 -286503224</internalNodes>
          <leafValues>
            -2.9204908013343811e-01 3.3420524001121521e-01</leafValues></_>
        <_>
          <internalNodes>
            0 -1 50 -1065159204 -717623067 425870684 1967435915
            -1073640192 -1186430819 1891891735 1875202243</internalNodes>
          <leafValues>
            -3.5697370767593384e-01 2.6589041948318481e-01</leafValues></_></weakClassifiers></_>
    <!-- stage 16 -->
    <_>
      <maxWeakCount>15</maxWeakCount>
      <stageThreshold>-9.4882917404174805e-01</stageThreshold>
      <weakClassifiers>
        <_>
          <internalNodes>
            0 -1 34 -1139058849 478616061 1233141866 -774766554
            1049757583 840958146 538001963 866607174</internalNodes>
          <leafValues>
            -4.1823056340217590e-01 2.9484385251998901e-01</leafValues></_>
        <_>
          <internalNodes>
            0 -1 237 106699773 546754838 -117095615 676608830
            -1894641189 -1341202257 -1161114853 183520506</internalNodes>
          <leafValues>
            -5.3527790307998657e-01 1.5681926906108856e-01</leafValues></_>
        <_>
          <internalNodes>
            0 -1 123 1498854384 -445605804 1547121111 1059698003
            -998455172 -713484328 732706587 -25987021</internalNodes>
          <leafValues>
            -2.3558758199214935e-01 3.4440162777900696e-01</leafValues></_>
        <_>
          <internalNodes>
            0 -1 37 602356021 378073267 184603479 683894197 1402370561
            -1567988565 999821352 720659312</internalNodes>
          <leafValues>
            -5.2626830339431763e-01 1.4341667294502258e-01</leafValues></_>
        <_>
          <internalNodes>
            0 -1 166 -358307599 301861121 -1609465463 -250991764
            -784334608 1628111104 -1038184307 697441780</internalNodes>
          <leafValues>
            -4.7746750712394714e-01 1.8924514949321747e-01</leafValues></_>
        <_>
          <internalNodes>
            0 -1 216 -868410083 2021093327 -4199365 946505463 1442225264
            -69836809 -302166695 -1353888825</internalNodes>
          <leafValues>
            -2.8749775886535645e-01 3.1083655357360840e-01</leafValues></_>
        <_>
          <internalNodes>
            0 -1 108 951195768 -1240850429 -1283231497 -1916354111
            -1719614832 -1976465406 432601304 -2077815535</internalNodes>
          <leafValues>
            -4.5857328176498413e-01 1.8199183046817780e-01</leafValues></_>
        <_>
          <internalNodes>
            0 -1 173 -111680590 2044389388 -979554563 -678062465
            -861371652 -256757708 475143467 -1154520658</internalNodes>
          <leafValues>
            -2.0532549917697906e-01 4.0988475084304810e-01</leafValues></_>
        <_>
          <internalNodes>
            0 -1 186 -1377154340 1158144218 -2145999356 -316077406
            -771247583 279675403 -1444445585 -12131424</internalNodes>
          <leafValues>
            -2.8525376319885254e-01 2.9365652799606323e-01</leafValues></_>
        <_>
          <internalNodes>
            0 -1 90 -679082683 340038676 67256331 269549769 1501614281
            8727169 -846263154 290769640</internalNodes>
          <leafValues>
            -5.3683543205261230e-01 2.1608980000019073e-01</leafValues></_>
        <_>
          <internalNodes>
            0 -1 92 944765006 -189610447 -1694033272 -1613125619
            -1654267670 -1264705985 -330314291 -1092906353</internalNodes>
          <leafValues>
            -2.4248433113098145e-01 4.3273219466209412e-01</leafValues></_>
        <_>
          <internalNodes>
            0 -1 15 10411571 -1684493133 -1056644617 -1940748013
            931592838 1753225647 449196528 -1435016394</internalNodes>
          <leafValues>
            -2.9805815219879150e-01 3.0059930682182312e-01</leafValues></_>
        <_>
          <internalNodes>
            0 -1 143 -300108910 -754431172 469762201 -1354737555
            -326298200 -1908698764 -1197335873 522691178</internalNodes>
          <leafValues>
            -3.0281499028205872e-01 2.9697367548942566e-01</leafValues></_>
        <_>
          <internalNodes>
            0 -1 224 140527445 247889009 -1873161781 1010450957
            -427687831 -295663038 2059478047 584866917</internalNodes>
          <leafValues>
            -6.5394181013107300e-01 1.3332717120647430e-01</leafValues></_>
        <_>
          <internalNodes>
            0 -1 58 76787170 -998197821 -1735343408 2030184546
            1443522682 -1604707290 1514371782 1250587209</internalNodes>
          <leafValues>
            -3.8218599557876587e-01 2.3078735172748566e-01</leafValues></_></weakClassifiers></_>
    <!-- stage 17 -->
    <_>
      <maxWeakCount>16</maxWeakCount>
      <stageThreshold>-8.4409523010253906e-01</stageThreshold>
      <weakClassifiers>
        <_>
          <internalNodes>
            0 -1 239 240156509 -1360229949 -729583295 1010210591
            1283826057 -1266564477 66000179 785130337</internalNodes>
          <leafValues>
            -4.2083898186683655e-01 2.9373416304588318e-01</leafValues></_>
        <_>
          <internalNodes>
            0 -1 38 -807965593 -582854717 553730453 -928190325
            2135899780 -33476336 1753434861 1784543451</internalNodes>
          <leafValues>
            -2.7981120347976685e-01 2.8421261906623840e-01</leafValues></_>
        <_>
          <internalNodes>
            0 -1 162 -1265220272 -1714268348 1896731407 -1193336800
            -1501529832 -1462877083 571083481 -1472566786</internalNodes>
          <leafValues>
            -3.7354078888893127e-01 2.2079883515834808e-01</leafValues></_>
        <_>
          <internalNodes>
            0 -1 22 2014344497 -717434411 -2143121165 -659915129
            551903140 -871675671 -1362347424 741889316</internalNodes>
          <leafValues>
            -4.7258731722831726e-01 1.7602577805519104e-01</leafValues></_>
        <_>
          <internalNodes>
            0 -1 147 -1072643679 -2054651100 -2130234941 -1080138743
            1096991456 950112452 -627783283 -1566435304</internalNodes>
          <leafValues>
            -4.0547642111778259e-01 1.7959362268447876e-01</leafValues></_>
        <_>
          <internalNodes>
            0 -1 171 -391457872 -2003396360 -1037634166 -619110327
            -2008405588 -1432911607 705047832 -1143862055</internalNodes>
          <leafValues>
            -2.8854510188102722e-01 2.7352511882781982e-01</leafValues></_>
        <_>
          <internalNodes>
            0 -1 134 -169679726 1429259329 -256862543 -37613565
            -1073429374 -1107277592 -460544870 1546589050</internalNodes>
          <leafValues>
            -3.0984863638877869e-01 2.6357918977737427e-01</leafValues></_>
        <_>
          <internalNodes>
            0 -1 221 -1598267297 -1587134459 -1073709052 -1803324781
            -2012601780 -1870462967 -1878998967 -1397007987</internalNodes>
          <leafValues>
            -3.5157793760299683e-01 2.4653121829032898e-01</leafValues></_>
        <_>
          <internalNodes>
            0 -1 10 -669807102 -653000057 329518288 -575829687
            -260046354 -121106342 -222053749 1077978949</internalNodes>
          <leafValues>
            -4.5700013637542725e-01 1.5940591692924500e-01</leafValues></_>
        <_>
          <internalNodes>
            0 -1 201 -1879672847 984093126 1426150547 957485083
            1768046765 -670940287 -120946522 -1563029200</internalNodes>
          <leafValues>
            -3.8085961341857910e-01 2.3550999164581299e-01</leafValues></_>
        <_>
          <internalNodes>
            0 -1 27 -978067754 361059852 -2129837879 -120772465
            290706448 2013268000 282129394 1803108131</internalNodes>
          <leafValues>
            -3.9728409051895142e-01 2.3440876603126526e-01</leafValues></_>
        <_>
          <internalNodes>
            0 -1 64 -87313957 -304889913 1420738649 -539302217
            -572548371 -103077673 -629764945 -118247985</internalNodes>
          <leafValues>
            -1.4384981989860535e-01 6.7298114299774170e-01</leafValues></_>
        <_>
          <internalNodes>
            0 -1 206 -1450518212 -1891498478 -1558619899 -1114092467
            -238923404 -1086209649 315490853 -1398119929</internalNodes>
          <leafValues>
            -3.6587297916412354e-01 2.5852814316749573e-01</leafValues></_>
        <_>
          <internalNodes>
            0 -1 187 -266556720 1263590480 570504468 893683014
            -1386277894 791421088 634096259 994918234</internalNodes>
          <leafValues>
            -3.6153748631477356e-01 2.6469698548316956e-01</leafValues></_>
        <_>
          <internalNodes>
            0 -1 146 11705085 1277272052 -105711992 -47890381 -990565799
            -82442178 -93557332 -1217106215</internalNodes>
          <leafValues>
            -2.7662825584411621e-01 3.3922296762466431e-01</leafValues></_>
        <_>
          <internalNodes>
            0 -1 150 101467186 -669876208 1157628723 1418725936
            818659424 -1366556612 1887832213 42385425</internalNodes>
          <leafValues>
            -5.4680538177490234e-01 1.6798277199268341e-01</leafValues></_></weakClassifiers></_>
    <!-- stage 18 -->
    <_>
      <maxWeakCount>17</maxWeakCount>
      <stageThreshold>-8.0869883298873901e-01</stageThreshold>
      <weakClassifiers>
        <_>
          <internalNodes>
            0 -1 43 8927765 679510221 957055649 782791989 -1029018912
            -1445298038 -2088284379 204493056</internalNodes>
          <leafValues>
            -5.9192824363708496e-01 2.5016373395919800e-01</leafValues></_>
        <_>
          <internalNodes>
            0 -1 174 -1408105388 -1392484224 -1650730297 -194698980
            -1997862484 -1366704056 -573031752 -1564785437</internalNodes>
          <leafValues>
            -3.7955567240715027e-01 2.0805089175701141e-01</leafValues></_>
        <_>
          <internalNodes>
            0 -1 214 41298197 -1256852527 318898203 407000531 -359407087
            1562446401 -204049545 144852970</internalNodes>
          <leafValues>
            -3.7036579847335815e-01 2.2162732481956482e-01</leafValues></_>
        <_>
          <internalNodes>
            0 -1 33 -107389697 1615861255 119193 2023923713 717898311
            948175288 579027682 1665343914</internalNodes>
          <leafValues>
            -4.5534548163414001e-01 1.8344904482364655e-01</leafValues></_>
        <_>
          <internalNodes>
            0 -1 104 -124262534 968077962 1815128951 1031725144
            2103018142 -1973929832 294149278 1066386379</internalNodes>
          <leafValues>
            -2.6637208461761475e-01 3.0753207206726074e-01</leafValues></_>
        <_>
          <internalNodes>
            0 -1 164 -1378003211 -1375725368 -1039937519 -1207929725
            277287085 -90161145 -377220987 -1899857215</internalNodes>
          <leafValues>
            -3.5820871591567993e-01 2.1581789851188660e-01</leafValues></_>
        <_>
          <internalNodes>
            0 -1 102 -2013112876 674234420 -1874831875 -98598512
            15864286 -1445231414 138161260 -1434427016</internalNodes>
          <leafValues>
            -4.6332743763923645e-01 1.6799151897430420e-01</leafValues></_>
        <_>
          <internalNodes>
            0 -1 210 -703401057 -1476198128 -788356911 771879699
            -997977774 755191808 -901738221 148359284</internalNodes>
          <leafValues>
            -3.9434298872947693e-01 2.3953057825565338e-01</leafValues></_>
        <_>
          <internalNodes>
            0 -1 47 146916023 -1417117486 1208506207 -778403839 4228018
            -1440868217 1167086320 702492930</internalNodes>
          <leafValues>
            -3.2824388146400452e-01 2.6768007874488831e-01</leafValues></_>
        <_>
          <internalNodes>
            0 -1 73 -1468687276 1154628118 425008154 251904271
            -113208995 -226404219 -1952396801 -1451003878</internalNodes>
          <leafValues>
            -3.2852315902709961e-01 2.9983934760093689e-01</leafValues></_>
        <_>
          <internalNodes>
            0 -1 133 1610610691 -1208392813 -1161945347 -939407
            -796492396 765990870 -269092518 -1620327201</internalNodes>
          <leafValues>
            -1.5084812045097351e-01 5.5560851097106934e-01</leafValues></_>
        <_>
          <internalNodes>
            0 -1 114 -1809444556 -1978527556 -1861625765 -1802370892
            -1732356039 -1126006046 -1397833451 -1912595151</internalNodes>
          <leafValues>
            -4.7750732302665710e-01 1.6902889311313629e-01</leafValues></_>
        <_>
          <internalNodes>
            0 -1 179 -503135350 1938951424 554303515 -1869821406
            1409327552 1526991239 -389206865 1820665352</internalNodes>
          <leafValues>
            -3.7358278036117554e-01 2.4553352594375610e-01</leafValues></_>
        <_>
          <internalNodes>
            0 -1 44 -258768352 1174577442 18359378 -1383955678
            -1327198040 817893537 -1980858231 2121745</internalNodes>
          <leafValues>
            -5.5428963899612427e-01 1.7694279551506042e-01</leafValues></_>
        <_>
          <internalNodes>
            0 -1 154 -1088981509 1133302022 346048699 1033176073
            2034639071 -1579024220 1096990922 -323282158</internalNodes>
          <leafValues>
            -3.0995592474937439e-01 2.9866829514503479e-01</leafValues></_>
        <_>
          <internalNodes>
            0 -1 76 1746706432 -1051667686 75860241 -396821643 134758588
            -1320938688 314310817 1393428188</internalNodes>
          <leafValues>
            -4.6530857682228088e-01 2.0165613293647766e-01</leafValues></_>
        <_>
          <internalNodes>
            0 -1 153 -637101430 -693753125 410950665 -573181855
            -1255887648 -1258383263 1576356763 252704221</internalNodes>
          <leafValues>
            -2.9138433933258057e-01 3.1514632701873779e-01</leafValues></_></weakClassifiers></_>
    <!-- stage 19 -->
    <_>
      <maxWeakCount>18</maxWeakCount>
      <stageThreshold>-7.7981150150299072e-01</stageThreshold>
      <weakClassifiers>
        <_>
          <internalNodes>
            0 -1 126 -1358987273 -625729669 -1 775831037 -1094881607
            -1140875273 -323133447 -1078370573</internalNodes>
          <leafValues>
            -1.5469935536384583e-01 4.2809176445007324e-01</leafValues></_>
        <_>
          <internalNodes>
            0 -1 36 159405921 1179243355 -486508193 -951222249 5178673
            -2010774837 705563920 708335937</internalNodes>
          <leafValues>
            -6.2377613782882690e-01 1.4371557533740997e-01</leafValues></_>
        <_>
          <internalNodes>
            0 -1 61 67350038 -180212851 1543510168 -569910178 -266362724
            -1674509568 -522089574 2126689</internalNodes>
          <leafValues>
            -4.8383778333663940e-01 1.7296318709850311e-01</leafValues></_>
        <_>
          <internalNodes>
            0 -1 190 1450607174 -1861221753 1459765521 420848693
            964779045 -98942939 1580322397 2139655</internalNodes>
          <leafValues>
            -4.2341056466102600e-01 1.4350420236587524e-01</leafValues></_>
        <_>
          <internalNodes>
            0 -1 91 -1361962692 -1304256112 621707995 -1685451632
            679806432 -656252793 -1471399323 -1129168616</internalNodes>
          <leafValues>
            -3.5106971859931946e-01 2.2441220283508301e-01</leafValues></_>
        <_>
          <internalNodes>
            0 -1 25 -77170317 428474569 -1073521825 -1330813976
            822165799 -622178640 691036193 1732506129</internalNodes>
          <leafValues>
            -4.1138479113578796e-01 1.7346285283565521e-01</leafValues></_>
        <_>
          <internalNodes>
            0 -1 80 1594565308 469920262 -1792991204 1363186070
            -1054427600 -1646985023 1091123634 429855010</internalNodes>
          <leafValues>
            -3.8928180932998657e-01 1.9378510117530823e-01</leafValues></_>
        <_>
          <internalNodes>
            0 -1 211 -1541787088 -14802624 -921380733 -1318187002
            -1576922464 -82947710 1073748080 -1912598171</internalNodes>
          <leafValues>
            -4.6057316660881042e-01 1.5975636243820190e-01</leafValues></_>
        <_>
          <internalNodes>
            0 -1 170 -888433022 1300280996 -1040123678 419735288
            898565313 -603698637 483900640 2126242699</internalNodes>
          <leafValues>
            -2.7468544244766235e-01 3.1018078327178955e-01</leafValues></_>
        <_>
          <internalNodes>
            0 -1 192 512619855 155065005 956387615 224801230 857461900
            574213827 -1852472107 787204613</internalNodes>
          <leafValues>
            -4.0254282951354980e-01 1.9072154164314270e-01</leafValues></_>
        <_>
          <internalNodes>
            0 -1 117 -991264571 -1372125313 -1073774593 -1087214212
            -1431152663 -541147137 -1818456837 -1081455508</internalNodes>
          <leafValues>
            -2.8071597218513489e-01 2.9678004980087280e-01</leafValues></_>
        <_>
          <internalNodes>
            0 -1 167 -625030056 -642097411 -278529 900970848 -1116359233
            201285119 -1883832324 -1166145797</internalNodes>
          <leafValues>
            -2.5407204031944275e-01 3.3898702263832092e-01</leafValues></_>
        <_>
          <internalNodes>
            0 -1 168 -244847270 -1191518118 988821995 1436412527
            -965616437 -1582038212 -705721378 -605031921</internalNodes>
          <leafValues>
            -1.9227255880832672e-01 4.8730346560478210e-01</leafValues></_>
        <_>
          <internalNodes>
            0 -1 129 1608508083 -36805082 -1121039688 2133733412
            -774407974 -859000334 -2124460657 -6830820</internalNodes>
          <leafValues>
            -1.6996102035045624e-01 4.6530479192733765e-01</leafValues></_>
        <_>
          <internalNodes>
            0 -1 193 -908834092 -166968317 -788299729 -1874144232
            -695594748 -1783986013 1248478857 -1951790527</internalNodes>
          <leafValues>
            -3.8571643829345703e-01 2.2015401721000671e-01</leafValues></_>
        <_>
          <internalNodes>
            0 -1 138 -673712134 484677458 -1934894262 1030881535
            408522815 547170224 1331122104 -2076220625</internalNodes>
          <leafValues>
            -2.6479709148406982e-01 3.2550224661827087e-01</leafValues></_>
        <_>
          <internalNodes>
            0 -1 137 -278420978 -228733011 -308618718 693168643
            274966170 -537881309 -1280066594 -548181225</internalNodes>
          <leafValues>
            -2.3522481322288513e-01 3.7694460153579712e-01</leafValues></_>
        <_>
          <internalNodes>
            0 -1 183 -1541049115 542382424 271864970 -1676717430
            635642919 675479683 1417962762 443540875</internalNodes>
          <leafValues>
            -4.7582140564918518e-01 2.0512412488460541e-01</leafValues></_></weakClassifiers></_>
    <!-- stage 20 -->
    <_>
      <maxWeakCount>19</maxWeakCount>
      <stageThreshold>-7.3915731906890869e-01</stageThreshold>
      <weakClassifiers>
        <_>
          <internalNodes>
            0 -1 57 203714321 142610771 -1035935678 1426133120 50934125
            -1496973183 318840901 -1091600528</internalNodes>
          <leafValues>
            -3.2332563400268555e-01 2.9612755775451660e-01</leafValues></_>
        <_>
          <internalNodes>
            0 -1 227 -897820673 -1302719483 -1073381303 395374595
            1095934339 -889077758 -1325219703 -1942006141</internalNodes>
          <leafValues>
            -2.6528707146644592e-01 2.6972317695617676e-01</leafValues></_>
        <_>
          <internalNodes>
            0 -1 18 -1679586353 -400222325 75817025 -989796336 436404992
            -524017568 411111970 1491957302</internalNodes>
          <leafValues>
            -4.7096425294876099e-01 1.5176054835319519e-01</leafValues></_>
        <_>
          <internalNodes>
            0 -1 72 -717696556 -710756632 -474664019 1092191143
            -130748517 -145659929 -126378869 -1949356038</internalNodes>
          <leafValues>
            -1.6788239777088165e-01 4.4824954867362976e-01</leafValues></_>
        <_>
          <internalNodes>
            0 -1 198 -459127659 -1453850619 -1589000925 -1911491775
            608971117 -1608843002 -1492156401 -1364047497</internalNodes>
          <leafValues>
            -3.4750702977180481e-01 2.0367962121963501e-01</leafValues></_>
        <_>
          <internalNodes>
            0 -1 157 -722250566 1395113655 1852661351 1507132296
            -1885003596 413451758 -36845917 -68190693</internalNodes>
          <leafValues>
            -1.4543148875236511e-01 4.6428936719894409e-01</leafValues></_>
        <_>
          <internalNodes>
            0 -1 139 -731188880 -456337636 83998294 1423038663
            -752880849 -1532690202 -922584854 -205048161</internalNodes>
          <leafValues>
            -2.9995942115783691e-01 2.7609556913375854e-01</leafValues></_>
        <_>
          <internalNodes>
            0 -1 66 292394205 -916967280 364150141 -38323657 1123854605
            -101371244 -1994973205 -1109689354</internalNodes>
          <leafValues>
            -2.0278351008892059e-01 3.8566836714744568e-01</leafValues></_>
        <_>
          <internalNodes>
            0 -1 78 -612916809 -710228950 665648620 2133317709 -11100027
            -562162390 -1521157159 1876932536</internalNodes>
          <leafValues>
            -2.0386524498462677e-01 3.9400935173034668e-01</leafValues></_>
        <_>
          <internalNodes>
            0 -1 230 212896861 71335433 -1055812327 408183553 402898982
            -1170128872 823819185 -1930804062</internalNodes>
          <leafValues>
            -4.0634500980377197e-01 2.3622633516788483e-01</leafValues></_>
        <_>
          <internalNodes>
            0 -1 181 -205075766 -11290848 -1191310144 -718871298
            -1364486672 958697116 -1036302913 -562626389</internalNodes>
          <leafValues>
            -2.6629275083541870e-01 3.2400336861610413e-01</leafValues></_>
        <_>
          <internalNodes>
            0 -1 24 -44149453 -2135988157 -939308672 1080147968
            268846868 1178937364 537200325 1962221926</internalNodes>
          <leafValues>
            -5.7110220193862915e-01 1.6207362711429596e-01</leafValues></_>
        <_>
          <internalNodes>
            0 -1 100 -1207660748 523543297 -1065253373 -1593675263
            80652717 -1332674405 -190446679 -1346696164</internalNodes>
          <leafValues>
            -3.5420912504196167e-01 2.3400363326072693e-01</leafValues></_>
        <_>
          <internalNodes>
            0 -1 122 -950840456 1148003793 1304430473 -1378617277
            33937532 -1193798776 212420825 538199905</internalNodes>
          <leafValues>
            -3.9286002516746521e-01 2.1867580711841583e-01</leafValues></_>
        <_>
          <internalNodes>
            0 -1 131 -649338494 -51309653 336105817 474719555 1579975043
            -1962328048 12951081 1571662550</internalNodes>
          <leafValues>
            -3.1597372889518738e-01 2.6431438326835632e-01</leafValues></_>
        <_>
          <internalNodes>
            0 -1 4 2457285 147939487 -651582564 -809049384 143051923
            -2004701489 1116041976 1699024912</internalNodes>
          <leafValues>
            -3.7144178152084351e-01 2.4725367128849030e-01</leafValues></_>
        <_>
          <internalNodes>
            0 -1 169 -2078132640 -623492592 -528380939 1931624469
            -1870511936 -390069248 1592701065 -1464723175</internalNodes>
          <leafValues>
            -4.1016584634780884e-01 1.9243267178535461e-01</leafValues></_>
        <_>
          <internalNodes>
            0 -1 69 -2066268213 784871691 -880621355 -862912508
            122835646 -1304100779 1237789542 2114217994</internalNodes>
          <leafValues>
            -3.9696228504180908e-01 2.3030292987823486e-01</leafValues></_>
        <_>
          <internalNodes>
            0 -1 67 -920945705 668808567 -1073680000 488978051
            1346415891 2021663360 -139982306 -919427421</internalNodes>
          <leafValues>
            -2.8997600078582764e-01 2.9853039979934692e-01</leafValues></_></weakClassifiers></_>
    <!-- stage 21 -->
    <_>
      <maxWeakCount>19</maxWeakCount>
      <stageThreshold>-7.8754490613937378e-01</stageThreshold>
      <weakClassifiers>
        <_>
          <internalNodes>
            0 -1 38 118108708 -460674797 -1526128740 -2109699903
            963395424 2070020106 201594921 1783119105</internalNodes>
          <leafValues>
            -5.1271188259124756e-01 2.4504622817039490e-01</leafValues></_>
        <_>
          <internalNodes>
            0 -1 226 -996878987 -954810046 -250884079 637843971
            -477474803 -250444285 -796437622 -1364927179</internalNodes>
          <leafValues>
            -3.2870900630950928e-01 2.0799292623996735e-01</leafValues></_>
        <_>
          <internalNodes>
            0 -1 105 1185587344 -1191124208 2022741268 1019679015
            -712668032 -1440738032 -2107565504 991889083</internalNodes>
          <leafValues>
            -3.3469876646995544e-01 2.2779223322868347e-01</leafValues></_>
        <_>
          <internalNodes>
            0 -1 88 1090556905 -778045535 1619200337 1348118742
            -1493056312 -1874643547 1828032737 1607427979</internalNodes>
          <leafValues>
            -3.0102753639221191e-01 2.3163735866546631e-01</leafValues></_>
        <_>
          <internalNodes>
            0 -1 53 317292513 684084635 1652573902 453220100 403469199
            1844495424 679568345 1027686419</internalNodes>
          <leafValues>
            -3.6821833252906799e-01 2.0034863054752350e-01</leafValues></_>
        <_>
          <internalNodes>
            0 -1 204 -1903536940 238842433 1610862723 -2105339501
            637936018 -668859741 -1472067389 674919712</internalNodes>
          <leafValues>
            -5.7263958454132080e-01 1.1260300874710083e-01</leafValues></_>
        <_>
          <internalNodes>
            0 -1 173 -989732140 2110403717 1183739101 -708384976
            -634548031 -1863667271 -1731147898 1962667683</internalNodes>
          <leafValues>
            -2.4506060779094696e-01 2.9997816681861877e-01</leafValues></_>
        <_>
          <internalNodes>
            0 -1 111 1346621128 886420645 271141060 -791448375 974244023
            615588625 -349107812 3339073</internalNodes>
          <leafValues>
            -5.1984298229217529e-01 1.4409050345420837e-01</leafValues></_>
        <_>
          <internalNodes>
            0 -1 208 -1575985571 160322380 1073856647 933232733
            138809547 -402604032 1879189657 86721613</internalNodes>
          <leafValues>
            -4.3935811519622803e-01 1.7353649437427521e-01</leafValues></_>
        <_>
          <internalNodes>
            0 -1 141 -1018956726 1464871936 2050855932 -1273857449
            -2115050806 -109437534 205429147 -370043246</internalNodes>
          <leafValues>
            -2.6613175868988037e-01 3.0339914560317993e-01</leafValues></_>
        <_>
          <internalNodes>
            0 -1 115 1107947316 -1154356700 880191515 1729129061
            -1292455248 -1545482268 1849245695 -1954550137</internalNodes>
          <leafValues>
            -1.9656711816787720e-01 3.9118871092796326e-01</leafValues></_>
        <_>
          <internalNodes>
            0 -1 188 -2087665302 -201850342 -2047071277 -679157793
            1103820699 -911433860 797772430 467647034</internalNodes>
          <leafValues>
            -2.7288958430290222e-01 2.8953492641448975e-01</leafValues></_>
        <_>
          <internalNodes>
            0 -1 81 -100667137 -1716956136 959993846 -789361768
            -1038963469 -63133210 -19539271 -339828689</internalNodes>
          <leafValues>
            -1.3350819051265717e-01 6.0732913017272949e-01</leafValues></_>
        <_>
          <internalNodes>
            0 -1 63 -330148952 -666332911 79956419 269165067 408197478
            1316148 1812622479 1365074894</internalNodes>
          <leafValues>
            -5.2170097827911377e-01 1.5953385829925537e-01</leafValues></_>
        <_>
          <internalNodes>
            0 -1 51 644445799 -2079571584 -257822655 -1602120958
            -465221039 -368386039 277751819 1788369501</internalNodes>
          <leafValues>
            -4.6665647625923157e-01 1.8650035560131073e-01</leafValues></_>
        <_>
          <internalNodes>
            0 -1 79 -43785611 -1318015800 421976301 1398749048
            -1076431361 -1712413251 -1808410465 -1376917633</internalNodes>
          <leafValues>
            -1.6594254970550537e-01 4.8689389228820801e-01</leafValues></_>
        <_>
          <internalNodes>
            0 -1 103 -616967265 946523156 -1321550869 -346328915
            -888758579 -90390788 -117020138 -89654321</internalNodes>
          <leafValues>
            -1.5560226142406464e-01 5.3956490755081177e-01</leafValues></_>
        <_>
          <internalNodes>
            0 -1 85 -744416482 -779656737 4194609 102696921 -75390367
            1904354003 1250145162 1179495052</internalNodes>
          <leafValues>
            -3.0822134017944336e-01 2.9019609093666077e-01</leafValues></_>
        <_>
          <internalNodes>
            0 -1 151 -669280147 1087888313 796667645 -1224926409
            712425083 -1115846778 -1673913425 -10832694</internalNodes>
          <leafValues>
            -2.0777392387390137e-01 4.1333416104316711e-01</leafValues></_></weakClassifiers></_></stages>
  <features>
    <_>
      <rect>
        0 0 1 1</rect></_>
    <_>
      <rect>
        0 0 1 3</rect></_>
    <_>
      <rect>
        0 0 2 1</rect></_>
    <_>
      <rect>
        0 0 3 2</rect></_>
    <_>
      <rect>
        0 0 4 1</rect></_>
    <_>
      <rect>
        0 0 5 1</rect></_>
    <_>
      <rect>
        0 0 6 1</rect></_>
    <_>
      <rect>
        0 0 6 3</rect></_>
    <_>
      <rect>
        0 0 7 3</rect></_>
    <_>
      <rect>
        0 0 8 2</rect></_>
    <_>
      <rect>
        0 0 9 1</rect></_>
    <_>
      <rect>
        0 0 9 3</rect></_>
    <_>
      <rect>
        0 0 10 2</rect></_>
    <_>
      <rect>
        0 0 10 3</rect></_>
    <_>
      <rect>
        0 1 1 1</rect></_>
    <_>
      <rect>
        0 1 2 1</rect></_>
    <_>
      <rect>
        0 1 5 3</rect></_>
    <_>
      <rect>
        0 1 6 3</rect></_>
    <_>
      <rect>
        0 1 7 3</rect></_>
    <_>
      <rect>
        0 1 9 3</rect></_>
    <_>
      <rect>
        0 1 10 2</rect></_>
    <_>
      <rect>
        0 1 10 3</rect></_>
    <_>
      <rect>
        0 2 1 1</rect></_>
    <_>
      <rect>
        0 2 7 1</rect></_>
    <_>
      <rect>
        0 2 7 2</rect></_>
    <_>
      <rect>
        0 3 2 1</rect></_>
    <_>
      <rect>
        0 3 2 2</rect></_>
    <_>
      <rect>
        0 3 5 1</rect></_>
    <_>
      <rect>
        0 4 1 1</rect></_>
    <_>
      <rect>
        0 4 1 2</rect></_>
    <_>
      <rect>
        0 4 2 2</rect></_>
    <_>
      <rect>
        0 4 3 2</rect></_>
    <_>
      <rect>
        0 4 5 2</rect></_>
    <_>
      <rect>
        0 4 7 2</rect></_>
    <_>
      <rect>
        0 4 9 2</rect></_>
    <_>
      <rect>
        0 6 1 1</rect></_>
    <_>
      <rect>
        0 7 1 1</rect></_>
    <_>
      <rect>
        0 7 2 1</rect></_>
    <_>
      <rect>
        0 7 3 1</rect></_>
    <_>
      <rect>
        0 7 4 1</rect></_>
    <_>
      <rect>
        0 7 5 1</rect></_>
    <_>
      <rect>
        0 7 8 1</rect></_>
    <_>
      <rect>
        0 7 10 1</rect></_>
    <_>
      <rect>
        1 0 1 1</rect></_>
    <_>
      <rect>
        1 0 5 1</rect></_>
    <_>
      <rect>
        1 0 6 1</rect></_>
    <_>
      <rect>
        1 1 1 3</rect></_>
    <_>
      <rect>
        1 1 2 1</rect></_>
    <_>
      <rect>
        1 2 1 1</rect></_>
    <_>
      <rect>
        1 4 1 1</rect></_>
    <_>
      <rect>
        1 5 7 1</rect></_>
    <_>
      <rect>
        1 7 1 1</rect></_>
    <_>
      <rect>
        1 7 4 1</rect></_>
    <_>
      <rect>
        1 7 8 1</rect></_>
    <_>
      <rect>
        2 0 1 1</rect></_>
    <_>
      <rect>
        2 1 1 1</rect></_>
    <_>
      <rect>
        2 3 1 1</rect></_>
    <_>
      <rect>
        2 3 1 2</rect></_>
    <_>
      <rect>
        2 3 6 1</rect></_>
    <_>
      <rect>
        2 4 1 1</rect></_>
    <_>
      <rect>
        2 7 1 1</rect></_>
    <_>
      <rect>
        3 0 9 1</rect></_>
    <_>
      <rect>
        3 2 5 1</rect></_>
    <_>
      <rect>
        3 2 8 2</rect></_>
    <_>
      <rect>
        3 3 7 1</rect></_>
    <_>
      <rect>
        3 4 6 1</rect></_>
    <_>
      <rect>
        3 5 7 1</rect></_>
    <_>
      <rect>
        3 6 5 1</rect></_>
    <_>
      <rect>
        3 7 1 1</rect></_>
    <_>
      <rect>
        3 7 4 1</rect></_>
    <_>
      <rect>
        4 3 6 1</rect></_>
    <_>
      <rect>
        4 3 7 1</rect></_>
    <_>
      <rect>
        4 4 5 1</rect></_>
    <_>
      <rect>
        4 5 6 1</rect></_>
    <_>
      <rect>
        4 7 2 1</rect></_>
    <_>
      <rect>
        5 0 8 2</rect></_>
    <_>
      <rect>
        5 1 5 1</rect></_>
    <_>
      <rect>
        5 2 2 2</rect></_>
    <_>
      <rect>
        5 4 3 1</rect></_>
    <_>
      <rect>
        5 4 6 1</rect></_>
    <_>
      <rect>
        5 5 3 1</rect></_>
    <_>
      <rect>
        5 5 4 1</rect></_>
    <_>
      <rect>
        5 5 5 1</rect></_>
    <_>
      <rect>
        5 7 6 1</rect></_>
    <_>
      <rect>
        6 0 8 3</rect></_>
    <_>
      <rect>
        6 1 3 2</rect></_>
    <_>
      <rect>
        6 1 8 2</rect></_>
    <_>
      <rect>
        6 2 5 1</rect></_>
    <_>
      <rect>
        6 2 6 1</rect></_>
    <_>
      <rect>
        6 2 8 1</rect></_>
    <_>
      <rect>
        6 2 8 2</rect></_>
    <_>
      <rect>
        6 3 1 1</rect></_>
    <_>
      <rect>
        6 3 3 1</rect></_>
    <_>
      <rect>
        6 3 8 2</rect></_>
    <_>
      <rect>
        6 4 8 2</rect></_>
    <_>
      <rect>
        6 5 6 1</rect></_>
    <_>
      <rect>
        6 6 3 1</rect></_>
    <_>
      <rect>
        6 7 6 1</rect></_>
    <_>
      <rect>
        7 0 1 1</rect></_>
    <_>
      <rect>
        7 0 1 2</rect></_>
    <_>
      <rect>
        7 1 1 1</rect></_>
    <_>
      <rect>
        7 2 1 1</rect></_>
    <_>
      <rect>
        7 3 1 1</rect></_>
    <_>
      <rect>
        7 3 2 1</rect></_>
    <_>
      <rect>
        7 3 3 1</rect></_>
    <_>
      <rect>
        7 3 4 1</rect></_>
    <_>
      <rect>
        7 4 1 1</rect></_>
    <_>
      <rect>
        7 4 6 1</rect></_>
    <_>
      <rect>
        7 5 1 1</rect></_>
    <_>
      <rect>
        7 7 6 1</rect></_>
    <_>
      <rect>
        8 0 1 1</rect></_>
    <_>
      <rect>
        8 0 7 1</rect></_>
    <_>
      <rect>
        8 1 1 1</rect></_>
    <_>
      <rect>
        8 1 5 1</rect></_>
    <_>
      <rect>
        8 2 1 1</rect></_>
    <_>
      <rect>
        8 2 3 1</rect></_>
    <_>
      <rect>
        8 2 5 1</rect></_>
    <_>
      <rect>
        8 3 1 1</rect></_>
    <_>
      <rect>
        8 3 4 1</rect></_>
    <_>
      <rect>
        8 3 5 1</rect></_>
    <_>
      <rect>
        8 4 1 1</rect></_>
    <_>
      <rect>
        8 4 3 1</rect></_>
    <_>
      <rect>
        8 4 5 1</rect></_>
    <_>
      <rect>
        8 5 5 1</rect></_>
    <_>
      <rect>
        8 5 6 1</rect></_>
    <_>
      <rect>
        8 6 5 1</rect></_>
    <_>
      <rect>
        8 7 1 1</rect></_>
    <_>
      <rect>
        9 0 7 2</rect></_>
    <_>
      <rect>
        9 1 7 3</rect></_>
    <_>
      <rect>
        9 2 3 1</rect></_>
    <_>
      <rect>
        9 3 3 1</rect></_>
    <_>
      <rect>
        9 3 4 1</rect></_>
    <_>
      <rect>
        9 4 4 1</rect></_>
    <_>
      <rect>
        10 1 5 1</rect></_>
    <_>
      <rect>
        10 2 3 1</rect></_>
    <_>
      <rect>
        10 2 5 2</rect></_>
    <_>
      <rect>
        10 3 4 1</rect></_>
    <_>
      <rect>
        10 4 2 1</rect></_>
    <_>
      <rect>
        10 4 4 1</rect></_>
    <_>
      <rect>
        10 5 6 1</rect></_>
    <_>
      <rect>
        11 1 2 1</rect></_>
    <_>
      <rect>
        11 3 2 1</rect></_>
    <_>
      <rect>
        11 3 3 1</rect></_>
    <_>
      <rect>
        11 3 4 1</rect></_>
    <_>
      <rect>
        11 3 6 1</rect></_>
    <_>
      <rect>
        11 4 3 1</rect></_>
    <_>
      <rect>
        11 4 5 1</rect></_>
    <_>
      <rect>
        12 0 1 1</rect></_>
    <_>
      <rect>
        12 0 5 1</rect></_>
    <_>
      <rect>
        12 0 6 1</rect></_>
    <_>
      <rect>
        12 1 4 1</rect></_>
    <_>
      <rect>
        12 1 4 2</rect></_>
    <_>
      <rect>
        12 1 6 3</rect></_>
    <_>
      <rect>
        12 2 3 1</rect></_>
    <_>
      <rect>
        12 6 5 1</rect></_>
    <_>
      <rect>
        13 0 1 1</rect></_>
    <_>
      <rect>
        13 2 1 1</rect></_>
    <_>
      <rect>
        13 2 4 1</rect></_>
    <_>
      <rect>
        13 2 5 1</rect></_>
    <_>
      <rect>
        13 3 1 1</rect></_>
    <_>
      <rect>
        13 4 1 1</rect></_>
    <_>
      <rect>
        13 4 1 2</rect></_>
    <_>
      <rect>
        13 5 1 1</rect></_>
    <_>
      <rect>
        13 6 1 1</rect></_>
    <_>
      <rect>
        13 7 1 1</rect></_>
    <_>
      <rect>
        13 7 4 1</rect></_>
    <_>
      <rect>
        14 0 1 1</rect></_>
    <_>
      <rect>
        14 2 1 1</rect></_>
    <_>
      <rect>
        14 2 2 1</rect></_>
    <_>
      <rect>
        14 3 1 1</rect></_>
    <_>
      <rect>
        14 3 3 1</rect></_>
    <_>
      <rect>
        14 4 1 1</rect></_>
    <_>
      <rect>
        14 4 1 2</rect></_>
    <_>
      <rect>
        14 4 2 1</rect></_>
    <_>
      <rect>
        14 5 1 1</rect></_>
    <_>
      <rect>
        14 6 1 1</rect></_>
    <_>
      <rect>
        14 7 1 1</rect></_>
    <_>
      <rect>
        15 0 5 1</rect></_>
    <_>
      <rect>
        15 2 5 2</rect></_>
    <_>
      <rect>
        15 3 2 1</rect></_>
    <_>
      <rect>
        15 4 1 1</rect></_>
    <_>
      <rect>
        15 4 2 1</rect></_>
    <_>
      <rect>
        15 4 5 2</rect></_>
    <_>
      <rect>
        15 6 5 1</rect></_>
    <_>
      <rect>
        15 7 5 1</rect></_>
    <_>
      <rect>
        16 2 3 1</rect></_>
    <_>
      <rect>
        16 2 3 2</rect></_>
    <_>
      <rect>
        16 4 2 1</rect></_>
    <_>
      <rect>
        16 4 3 1</rect></_>
    <_>
      <rect>
        16 7 2 1</rect></_>
    <_>
      <rect>
        17 0 4 1</rect></_>
    <_>
      <rect>
        17 1 4 1</rect></_>
    <_>
      <rect>
        17 7 4 1</rect></_>
    <_>
      <rect>
        18 1 1 1</rect></_>
    <_>
      <rect>
        18 1 4 3</rect></_>
    <_>
      <rect>
        18 7 4 1</rect></_>
    <_>
      <rect>
        19 0 1 1</rect></_>
    <_>
      <rect>
        19 1 1 1</rect></_>
    <_>
      <rect>
        19 2 1 1</rect></_>
    <_>
      <rect>
        19 3 1 1</rect></_>
    <_>
      <rect>
        19 4 1 1</rect></_>
    <_>
      <rect>
        19 5 1 1</rect></_>
    <_>
      <rect>
        19 7 1 1</rect></_>
    <_>
      <rect>
        20 1 1 1</rect></_>
    <_>
      <rect>
        20 1 1 2</rect></_>
    <_>
      <rect>
        20 2 1 1</rect></_>
    <_>
      <rect>
        20 3 1 1</rect></_>
    <_>
      <rect>
        20 4 1 1</rect></_>
    <_>
      <rect>
        20 7 1 1</rect></_>
    <_>
      <rect>
        21 0 3 1</rect></_>
    <_>
      <rect>
        21 0 3 3</rect></_>
    <_>
      <rect>
        21 4 1 1</rect></_>
    <_>
      <rect>
        22 0 2 1</rect></_>
    <_>
      <rect>
        23 7 2 1</rect></_>
    <_>
      <rect>
        24 0 2 1</rect></_>
    <_>
      <rect>
        24 0 2 2</rect></_>
    <_>
      <rect>
        24 1 2 1</rect></_>
    <_>
      <rect>
        24 4 2 2</rect></_>
    <_>
      <rect>
        24 7 2 1</rect></_>
    <_>
      <rect>
        25 0 1 1</rect></_>
    <_>
      <rect>
        25 1 1 1</rect></_>
    <_>
      <rect>
        25 1 1 3</rect></_>
    <_>
      <rect>
        25 2 1 2</rect></_>
    <_>
      <rect>
        25 5 1 1</rect></_>
    <_>
      <rect>
        25 7 1 1</rect></_>
    <_>
      <rect>
        26 0 1 1</rect></_>
    <_>
      <rect>
        26 0 1 2</rect></_>
    <_>
      <rect>
        26 0 1 3</rect></_>
    <_>
      <rect>
        26 1 1 2</rect></_>
    <_>
      <rect>
        26 4 1 1</rect></_>
    <_>
      <rect>
        26 5 1 1</rect></_>
    <_>
      <rect>
        26 6 1 1</rect></_>
    <_>
      <rect>
        26 7 1 1</rect></_>
    <_>
      <rect>
        27 0 1 1</rect></_>
    <_>
      <rect>
        27 0 1 3</rect></_>
    <_>
      <rect>
        27 1 1 1</rect></_>
    <_>
      <rect>
        27 1 1 3</rect></_>
    <_>
      <rect>
        27 4 1 1</rect></_>
    <_>
      <rect>
        27 6 1 1</rect></_>
    <_>
      <rect>
        27 7 1 1</rect></_></features></cascade>
</opencv_storage>
